{"learner":{"attributes":{"scikit_learn":"{\"_estimator_type\": \"regressor\"}"},"feature_names":[],"feature_types":[],"gradient_booster":{"model":{"cats":{"enc":[],"feature_segments":[],"sorted_idx":[]},"gbtree_model_param":{"num_parallel_tree":"1","num_trees":"50"},"iteration_indptr":[0,1,2,3,4,5,6,7,8,9,10,11,12,13,14,15,16,17,18,19,20,21,22,23,24,25,26,27,28,29,30,31,32,33,34,35,36,37,38,39,40,41,42,43,44,45,46,47,48,49,50],"tree_info":[0,0,0,0,0,0,0,0,0,0,0,0,0,0,0,0,0,0,0,0,0,0,0,0,0,0,0,0,0,0,0,0,0,0,0,0,0,0,0,0,0,0,0,0,0,0,0,0,0,0],"trees":[{"base_weights":[8.08748E-3,-1.35604E-1,1.0947351E-1,-2.066162E-1,-7.887985E-2,-4.2352043E-2,1.5374266E-1,-2.0325035E-4,-2.1773836E-2,-2.8803715E-2,-5.6517804E-3,-1.11111095E-2,2.5092927E-4,1.1560126E-2,2.3866719E-2],"categories":[],"categories_nodes":[],"categories_segments":[],"categories_sizes":[],"default_left":[0,0,0,0,0,0,0,0,0,0,0,0,0,0,0],"id":0,"left_children":[1,3,5,7,9,11,13,-1,-1,-1,-1,-1,-1,-1,-1],"loss_changes":[4.6475673E0,5.1541233E-1,1.2633731E0,1.3153124E-1,3.345096E-1,1.329176E-1,4.4208503E-1,0E0,0E0,0E0,0E0,0E0,0E0,0E0,0E0],"parents":[2147483647,0,0,1,1,2,2,3,3,4,4,5,5,6,6],"right_children":[2,4,6,8,10,12,14,-1,-1,-1,-1,-1,-1,-1,-1],"split_conditions":[5.121951E-1,4.390244E-1,4.1463414E-1,1.7073171E-1,2.195122E-1,3.6585367E-1,7.5609756E-1,-2.0325035E-4,-2.1773836E-2,-2.8803715E-2,-5.6517804E-3,-1.11111095E-2,2.5092927E-4,1.1560126E-2,2.3866719E-2],"split_indices":[11,1,2,4,11,1,11,0,0,0,0,0,0,0,0],"split_type":[0,0,0,0,0,0,0,0,0,0,0,0,0,0,0],"sum_hessian":[3.17E2,1.31E2,1.86E2,5.7E1,7.4E1,4.2E1,1.44E2,3E0,5.4E1,6E0,6.8E1,1.6E1,2.6E1,1.01E2,4.3E1],"tree_param":{"num_deleted":"0","num_feature":"12","num_nodes":"15","size_leaf_vector":"1"}},{"base_weights":[-3.4786942E-3,-1.2954381E-1,9.2429765E-2,-2.6586366E-1,-1.01200305E-1,-1.89722E-2,1.4227812E-1,-8.119608E-3,-2.8837824E-2,-1.4248759E-2,-2.1131383E-3,-4.812175E-3,7.816006E-3,1.091043E-2,2.116285E-2],"categories":[],"categories_nodes":[],"categories_segments":[],"categories_sizes":[],"default_left":[0,0,0,0,0,0,0,0,0,0,0,0,0,0,0],"id":1,"left_children":[1,3,5,7,9,11,13,-1,-1,-1,-1,-1,-1,-1,-1],"loss_changes":[4.001908E0,5.256152E-1,1.0467019E0,7.637012E-2,3.9368832E-1,1.7081153E-1,2.759905E-1,0E0,0E0,0E0,0E0,0E0,0E0,0E0,0E0],"parents":[2147483647,0,0,1,1,2,2,3,3,4,4,5,5,6,6],"right_children":[2,4,6,8,10,12,14,-1,-1,-1,-1,-1,-1,-1,-1],"split_conditions":[5.121951E-1,2.4390244E-1,4.6341464E-1,3.902439E-1,5.609756E-1,8.0487806E-1,7.5609756E-1,-8.119608E-3,-2.8837824E-2,-1.4248759E-2,-2.1131383E-3,-4.812175E-3,7.816006E-3,1.091043E-2,2.116285E-2],"split_indices":[11,11,2,7,1,8,11,0,0,0,0,0,0,0,0],"split_type":[0,0,0,0,0,0,0,0,0,0,0,0,0,0,0],"sum_hessian":[3.29E2,1.42E2,1.87E2,2.3E1,1.19E2,5.8E1,1.29E2,3E0,2E1,7.8E1,4.1E1,4.5E1,1.3E1,8.9E1,4E1],"tree_param":{"num_deleted":"0","num_feature":"12","num_nodes":"15","size_leaf_vector":"1"}},{"base_weights":[1.9733876E-3,-1.1745277E-1,8.899152E-2,-1.8011186E-1,-6.3253105E-2,-3.3057448E-2,1.2990896E-1,8.806527E-4,-1.8970456E-2,-2.275891E-2,-4.2989263E-3,-5.86101E-3,8.418295E-3,4.4251946E-3,1.5465001E-2],"categories":[],"categories_nodes":[],"categories_segments":[],"categories_sizes":[],"default_left":[0,0,0,0,0,0,0,0,0,0,0,0,0,0,0],"id":2,"left_children":[1,3,5,7,9,11,13,-1,-1,-1,-1,-1,-1,-1,-1],"loss_changes":[3.3775387E0,4.5387316E-1,9.4315374E-1,1.1584163E-1,2.3997197E-1,1.4873251E-1,2.9196978E-1,0E0,0E0,0E0,0E0,0E0,0E0,0E0,0E0],"parents":[2147483647,0,0,1,1,2,2,3,3,4,4,5,5,6,6],"right_children":[2,4,6,8,10,12,14,-1,-1,-1,-1,-1,-1,-1,-1],"split_conditions":[5.121951E-1,4.390244E-1,4.1463414E-1,1.7073171E-1,2.4390244E-1,8.0487806E-1,3.6585367E-1,8.806527E-4,-1.8970456E-2,-2.275891E-2,-4.2989263E-3,-5.86101E-3,8.418295E-3,4.4251946E-3,1.5465001E-2],"split_indices":[11,1,2,4,11,8,4,0,0,0,0,0,0,0,0],"split_type":[0,0,0,0,0,0,0,0,0,0,0,0,0,0,0],"sum_hessian":[3.23E2,1.36E2,1.87E2,6.2E1,7.4E1,4.7E1,1.4E2,3E0,5.9E1,7E0,6.7E1,3.9E1,8E0,3.2E1,1.08E2],"tree_param":{"num_deleted":"0","num_feature":"12","num_nodes":"15","size_leaf_vector":"1"}},{"base_weights":[2.5772573E-3,-1.15963235E-1,7.881146E-2,-1.9430651E-1,-6.652844E-2,-8.580399E-2,8.615558E-2,-6.6038E-4,-2.0640444E-2,8.145067E-3,-7.747972E-3,3.3132196E-3,-1.0481255E-2,6.9021783E-3,1.37182055E-2],"categories":[],"categories_nodes":[],"categories_segments":[],"categories_sizes":[],"default_left":[0,0,0,0,0,0,0,0,0,0,0,0,0,0,0],"id":3,"left_children":[1,3,5,7,9,11,13,-1,-1,-1,-1,-1,-1,-1,-1],"loss_changes":[2.955149E0,4.8280227E-1,2.4797487E-1,1.0990667E-1,1.3595563E-1,2.3819908E-2,1.5751839E-1,0E0,0E0,0E0,0E0,0E0,0E0,0E0,0E0],"parents":[2147483647,0,0,1,1,2,2,3,3,4,4,5,5,6,6],"right_children":[2,4,6,8,10,12,14,-1,-1,-1,-1,-1,-1,-1,-1],"split_conditions":[4.878049E-1,3.1707317E-1,2.4390244E-1,3.902439E-1,2.682927E-1,6.3414633E-1,7.5609756E-1,-6.6038E-4,-2.0640444E-2,8.145067E-3,-7.747972E-3,3.3132196E-3,-1.0481255E-2,6.9021783E-3,1.37182055E-2],"split_indices":[0,0,10,7,8,1,10,0,0,0,0,0,0,0,0],"split_type":[0,0,0,0,0,0,0,0,0,0,0,0,0,0,0],"sum_hessian":[3.25E2,1.27E2,1.98E2,4.8E1,7.9E1,8E0,1.9E2,3E0,4.5E1,5E0,7.4E1,1E0,7E0,1.44E2,4.6E1],"tree_param":{"num_deleted":"0","num_feature":"12","num_nodes":"15","size_leaf_vector":"1"}},{"base_weights":[3.1004208E-3,-9.7162865E-2,7.5000785E-2,-2.0999333E-1,-7.492638E-2,-6.551387E-3,1.1150177E-1,-3.110517E-3,-2.2632688E-2,-1.37487175E-2,-4.01906E-3,-7.3781386E-3,2.6403524E-3,5.741113E-3,1.5060263E-2],"categories":[],"categories_nodes":[],"categories_segments":[],"categories_sizes":[],"default_left":[0,0,0,0,0,0,0,0,0,0,0,0,0,0,0],"id":4,"left_children":[1,3,5,7,9,11,13,-1,-1,-1,-1,-1,-1,-1,-1],"loss_changes":[2.3646197E0,3.2799256E-1,5.692868E-1,5.72415E-2,2.4655366E-1,1.3488162E-1,2.705325E-1,0E0,0E0,0E0,0E0,0E0,0E0,0E0,0E0],"parents":[2147483647,0,0,1,1,2,2,3,3,4,4,5,5,6,6],"right_children":[2,4,6,8,10,12,14,-1,-1,-1,-1,-1,-1,-1,-1],"split_conditions":[5.121951E-1,2.4390244E-1,4.6341464E-1,2.4390244E-1,3.6585367E-1,3.6585367E-1,4.878049E-1,-3.110517E-3,-2.2632688E-2,-1.37487175E-2,-4.01906E-3,-7.3781386E-3,2.6403524E-3,5.741113E-3,1.5060263E-2],"split_indices":[11,11,2,1,1,1,4,0,0,0,0,0,0,0,0],"split_type":[0,0,0,0,0,0,0,0,0,0,0,0,0,0,0],"sum_hessian":[3.26E2,1.36E2,1.9E2,2.1E1,1.15E2,5.9E1,1.31E2,2E0,1.9E1,4E1,7.5E1,1.9E1,4E1,5.6E1,7.5E1],"tree_param":{"num_deleted":"0","num_feature":"12","num_nodes":"15","size_leaf_vector":"1"}},{"base_weights":[-2.3687E-3,-6.1117075E-2,8.803164E-2,-1.0684924E-1,2.1668565E-2,5.6896564E-2,1.4365011E-1,-1.5266313E-2,-7.872832E-3,-9.470142E-3,3.7694522E-3,9.855417E-3,1.3915788E-3,9.659394E-3,1.9999346E-2],"categories":[],"categories_nodes":[],"categories_segments":[],"categories_sizes":[],"default_left":[0,0,0,0,0,0,0,0,0,0,0,0,0,0,0],"id":5,"left_children":[1,3,5,7,9,11,13,-1,-1,-1,-1,-1,-1,-1,-1],"loss_changes":[1.7526575E0,7.5950867E-1,2.1694589E-1,1.5417552E-1,1.3784544E-1,1.50819E-1,1.0264176E-1,0E0,0E0,0E0,0E0,0E0,0E0,0E0,0E0],"parents":[2147483647,0,0,1,1,2,2,3,3,4,4,5,5,6,6],"right_children":[2,4,6,8,10,12,14,-1,-1,-1,-1,-1,-1,-1,-1],"split_conditions":[6.097561E-1,5.365854E-1,7.5609756E-1,3.1707317E-1,2.4390244E-1,5.121951E-1,4.878049E-1,-1.5266313E-2,-7.872832E-3,-9.470142E-3,3.7694522E-3,9.855417E-3,1.3915788E-3,9.659394E-3,1.9999346E-2],"split_indices":[11,0,11,0,10,7,5,0,0,0,0,0,0,0,0],"split_type":[0,0,0,0,0,0,0,0,0,0,0,0,0,0,0],"sum_hessian":[3.28E2,1.99E2,1.29E2,1.28E2,7.1E1,8.4E1,4.5E1,4.7E1,8.1E1,8E0,6.3E1,4.2E1,4.2E1,2.6E1,1.9E1],"tree_param":{"num_deleted":"0","num_feature":"12","num_nodes":"15","size_leaf_vector":"1"}},{"base_weights":[-3.7152248E-3,-1.2933834E-1,3.49149E-2,-1.9703925E-1,-1.0901685E-1,-5.021118E-2,6.0534343E-2,3.6660582E-3,-2.1393677E-2,-1.6029885E-2,-8.494186E-3,-2.5474967E-4,-8.418389E-3,3.618392E-3,1.23187555E-2],"categories":[],"categories_nodes":[],"categories_segments":[],"categories_sizes":[],"default_left":[0,0,0,0,0,0,0,0,0,0,0,0,0,0,0],"id":6,"left_children":[1,3,5,7,9,11,13,-1,-1,-1,-1,-1,-1,-1,-1],"loss_changes":[1.630216E0,8.7206244E-2,5.635264E-1,7.497513E-2,6.416464E-2,9.69414E-2,2.9761773E-1,0E0,0E0,0E0,0E0,0E0,0E0,0E0,0E0],"parents":[2147483647,0,0,1,1,2,2,3,3,4,4,5,5,6,6],"right_children":[2,4,6,8,10,12,14,-1,-1,-1,-1,-1,-1,-1,-1],"split_conditions":[3.902439E-1,2.4390244E-1,4.6341464E-1,3.902439E-1,2.4390244E-1,6.3414633E-1,7.3170733E-1,3.6660582E-3,-2.1393677E-2,-1.6029885E-2,-8.494186E-3,-2.5474967E-4,-8.418389E-3,3.618392E-3,1.23187555E-2],"split_indices":[0,11,11,7,0,3,11,0,0,0,0,0,0,0,0],"split_type":[0,0,0,0,0,0,0,0,0,0,0,0,0,0,0],"sum_hessian":[3.34E2,7.8E1,2.56E2,1.6E1,6.2E1,5.9E1,1.97E2,1E0,1.5E1,1.8E1,4.4E1,2.5E1,3.4E1,1.43E2,5.4E1],"tree_param":{"num_deleted":"0","num_feature":"12","num_nodes":"15","size_leaf_vector":"1"}},{"base_weights":[1.0274389E-3,-8.0007255E-2,5.602494E-2,-1.1217262E-1,-1.6042942E-2,-5.7202134E-2,7.244299E-2,-1.475441E-2,-7.4251764E-3,1.1760219E-2,-5.272095E-3,-2.565271E-3,-1.7826928E-2,4.0260055E-3,1.0377367E-2],"categories":[],"categories_nodes":[],"categories_segments":[],"categories_sizes":[],"default_left":[0,0,0,0,0,0,0,0,0,0,0,0,0,0,0],"id":7,"left_children":[1,3,5,7,9,11,13,-1,-1,-1,-1,-1,-1,-1,-1],"loss_changes":[1.4439982E0,2.677244E-1,3.629248E-1,1.0573912E-1,2.2678278E-1,9.091689E-2,1.6622704E-1,0E0,0E0,0E0,0E0,0E0,0E0,0E0,0E0],"parents":[2147483647,0,0,1,1,2,2,3,3,4,4,5,5,6,6],"right_children":[2,4,6,8,10,12,14,-1,-1,-1,-1,-1,-1,-1,-1],"split_conditions":[4.878049E-1,5.121951E-1,4.1463414E-1,3.1707317E-1,4.6341464E-1,8.0487806E-1,4.878049E-1,-1.475441E-2,-7.4251764E-3,1.1760219E-2,-5.272095E-3,-2.565271E-3,-1.7826928E-2,4.0260055E-3,1.0377367E-2],"split_indices":[0,11,11,0,9,1,4,0,0,0,0,0,0,0,0],"split_type":[0,0,0,0,0,0,0,0,0,0,0,0,0,0,0],"sum_hessian":[3.22E2,1.3E2,1.92E2,8.6E1,4.4E1,2.4E1,1.68E2,4.3E1,4.3E1,9E0,3.5E1,2E1,4E0,8.4E1,8.4E1],"tree_param":{"num_deleted":"0","num_feature":"12","num_nodes":"15","size_leaf_vector":"1"}},{"base_weights":[-8.1829145E-4,-7.091046E-2,4.686277E-2,1.2288946E-1,-7.628672E-2,5.0702292E-2,-1.5106976E-2,8.3279907E-4,1.5830062E-2,-1.1056789E-2,-5.376046E-3,1.5263445E-3,7.3397965E-3],"categories":[],"categories_nodes":[],"categories_segments":[],"categories_sizes":[],"default_left":[0,0,0,0,0,0,0,0,0,0,0,0,0],"id":8,"left_children":[1,3,5,7,9,11,-1,-1,-1,-1,-1,-1,-1],"loss_changes":[1.1062059E0,1.4899176E-1,1.5737298E-1,1.490869E-2,9.521747E-2,1.5491554E-1,0E0,0E0,0E0,0E0,0E0,0E0,0E0],"parents":[2147483647,0,0,1,1,2,2,3,3,4,4,5,5],"right_children":[2,4,6,8,10,12,-1,-1,-1,-1,-1,-1,-1],"split_conditions":[4.878049E-1,2.195122E-1,9.756098E-1,5.365854E-1,3.1707317E-1,4.6341464E-1,-1.5106976E-2,8.3279907E-4,1.5830062E-2,-1.1056789E-2,-5.376046E-3,1.5263445E-3,7.3397965E-3],"split_indices":[0,8,2,2,0,4,0,0,0,0,0,0,0],"split_type":[0,0,0,0,0,0,0,0,0,0,0,0,0],"sum_hessian":[3.29E2,1.33E2,1.96E2,3E0,1.3E2,1.93E2,3E0,1E0,2E0,5E1,8E1,7.6E1,1.17E2],"tree_param":{"num_deleted":"0","num_feature":"12","num_nodes":"13","size_leaf_vector":"1"}},{"base_weights":[6.482795E-4,-6.389722E-2,4.7586992E-2,-7.795738E-2,4.965058E-3,-7.7555835E-2,5.361324E-2,-8.319694E-3,2.9347555E-3,6.456051E-3,-5.042806E-3,1.6553858E-3,-1.0680916E-2,7.201925E-3,2.2509038E-3],"categories":[],"categories_nodes":[],"categories_segments":[],"categories_sizes":[],"default_left":[0,0,0,0,0,0,0,0,0,0,0,0,0,0,0],"id":9,"left_children":[1,3,5,7,9,11,13,-1,-1,-1,-1,-1,-1,-1,-1],"loss_changes":[9.785986E-1,1.3206416E-1,1.4518252E-1,6.59737E-2,8.2483925E-2,2.6545294E-2,1.008572E-1,0E0,0E0,0E0,0E0,0E0,0E0,0E0,0E0],"parents":[2147483647,0,0,1,1,2,2,3,3,4,4,5,5,6,6],"right_children":[2,4,6,8,10,12,14,-1,-1,-1,-1,-1,-1,-1,-1],"split_conditions":[5.121951E-1,6.585366E-1,2.4390244E-1,8.0487806E-1,5.609756E-1,6.585366E-1,6.097561E-1,-8.319694E-3,2.9347555E-3,6.456051E-3,-5.042806E-3,1.6553858E-3,-1.0680916E-2,7.201925E-3,2.2509038E-3],"split_indices":[0,10,10,8,6,1,8,0,0,0,0,0,0,0,0],"split_type":[0,0,0,0,0,0,0,0,0,0,0,0,0,0,0],"sum_hessian":[3.21E2,1.35E2,1.86E2,1.12E2,2.3E1,8E0,1.78E2,1.07E2,5E0,1.1E1,1.2E1,2E0,6E0,1.11E2,6.7E1],"tree_param":{"num_deleted":"0","num_feature":"12","num_nodes":"15","size_leaf_vector":"1"}},{"base_weights":[3.7771752E-4,-8.508316E-2,2.9774748E-2,-1.3392584E-1,-6.62009E-2,-1.7769419E-2,5.8051035E-2,-3.54235E-3,-1.5279879E-2,-9.158905E-3,-2.5572476E-3,-4.4636875E-3,5.421612E-3,1.6916031E-3,8.264338E-3],"categories":[],"categories_nodes":[],"categories_segments":[],"categories_sizes":[],"default_left":[0,0,0,0,0,0,0,0,0,0,0,0,0,0,0],"id":10,"left_children":[1,3,5,7,9,11,13,-1,-1,-1,-1,-1,-1,-1,-1],"loss_changes":[8.441525E-1,7.044834E-2,3.371247E-1,3.7345022E-2,6.367257E-2,1.8422247E-1,1.5742409E-1,0E0,0E0,0E0,0E0,0E0,0E0,0E0,0E0],"parents":[2147483647,0,0,1,1,2,2,3,3,4,4,5,5,6,6],"right_children":[2,4,6,8,10,12,14,-1,-1,-1,-1,-1,-1,-1,-1],"split_conditions":[4.1463414E-1,2.4390244E-1,5.365854E-1,3.902439E-1,6.8292683E-1,6.3414633E-1,4.6341464E-1,-3.54235E-3,-1.5279879E-2,-9.158905E-3,-2.5572476E-3,-4.4636875E-3,5.421612E-3,1.6916031E-3,8.264338E-3],"split_indices":[11,11,0,7,4,11,4,0,0,0,0,0,0,0,0],"split_type":[0,0,0,0,0,0,0,0,0,0,0,0,0,0,0],"sum_hessian":[3.34E2,8.5E1,2.49E2,2.2E1,6.3E1,9.3E1,1.56E2,4E0,1.8E1,3.8E1,2.5E1,6.8E1,2.5E1,5.9E1,9.7E1],"tree_param":{"num_deleted":"0","num_feature":"12","num_nodes":"15","size_leaf_vector":"1"}},{"base_weights":[1.0635288E-3,-5.398683E-2,3.7850633E-2,-7.807225E-2,-3.4942173E-3,1.9922698E-2,9.087743E-2,-1.2823704E-2,-6.1907494E-3,1.163772E-2,-3.7643358E-3,-3.065199E-3,3.0282852E-3,4.1483445E-3,1.1290155E-2],"categories":[],"categories_nodes":[],"categories_segments":[],"categories_sizes":[],"default_left":[0,0,0,0,0,0,0,0,0,0,0,0,0,0,0],"id":11,"left_children":[1,3,5,7,9,11,13,-1,-1,-1,-1,-1,-1,-1,-1],"loss_changes":[6.7236584E-1,1.6147321E-1,1.8737102E-1,6.504238E-2,1.8449506E-1,7.952246E-2,4.970941E-2,0E0,0E0,0E0,0E0,0E0,0E0,0E0,0E0],"parents":[2147483647,0,0,1,1,2,2,3,3,4,4,5,5,6,6],"right_children":[2,4,6,8,10,12,14,-1,-1,-1,-1,-1,-1,-1,-1],"split_conditions":[4.878049E-1,5.121951E-1,7.3170733E-1,2.4390244E-1,4.6341464E-1,4.1463414E-1,4.6341464E-1,-1.2823704E-2,-6.1907494E-3,1.163772E-2,-3.7643358E-3,-3.065199E-3,3.0282852E-3,4.1483445E-3,1.1290155E-2],"split_indices":[0,11,11,0,9,11,4,0,0,0,0,0,0,0,0],"split_type":[0,0,0,0,0,0,0,0,0,0,0,0,0,0,0],"sum_hessian":[3.3E2,1.32E2,1.98E2,8.9E1,4.3E1,1.49E2,4.9E1,2E1,6.9E1,9E0,3.4E1,2.5E1,1.24E2,1.6E1,3.3E1],"tree_param":{"num_deleted":"0","num_feature":"12","num_nodes":"15","size_leaf_vector":"1"}},{"base_weights":[1.3057729E-3,-4.3117497E-2,4.2622153E-2,-5.3684868E-2,9.168713E-2,2.5750019E-2,9.765645E-2,-8.920955E-3,-2.662366E-3,1.1666782E-2,1.2558788E-3,3.138354E-3,-9.872346E-3,8.112492E-3,1.971522E-2],"categories":[],"categories_nodes":[],"categories_segments":[],"categories_sizes":[],"default_left":[0,0,0,0,0,0,0,0,0,0,0,0,0,0,0],"id":12,"left_children":[1,3,5,7,9,11,13,-1,-1,-1,-1,-1,-1,-1,-1],"loss_changes":[6.09358E-1,2.3284706E-1,1.5719527E-1,1.4086461E-1,2.2254951E-2,9.63611E-2,4.9798757E-2,0E0,0E0,0E0,0E0,0E0,0E0,0E0,0E0],"parents":[2147483647,0,0,1,1,2,2,3,3,4,4,5,5,6,6],"right_children":[2,4,6,8,10,12,14,-1,-1,-1,-1,-1,-1,-1,-1],"split_conditions":[5.365854E-1,7.5609756E-1,7.3170733E-1,3.902439E-1,7.0731705E-1,8.780488E-1,7.3170733E-1,-8.920955E-3,-2.662366E-3,1.1666782E-2,1.2558788E-3,3.138354E-3,-9.872346E-3,8.112492E-3,1.971522E-2],"split_indices":[0,11,11,11,8,2,4,0,0,0,0,0,0,0,0],"split_type":[0,0,0,0,0,0,0,0,0,0,0,0,0,0,0],"sum_hessian":[3.3E2,1.59E2,1.71E2,1.48E2,1.1E1,1.32E2,3.9E1,6.3E1,8.5E1,8E0,3E0,1.27E2,5E0,3.5E1,4E0],"tree_param":{"num_deleted":"0","num_feature":"12","num_nodes":"15","size_leaf_vector":"1"}},{"base_weights":[4.4599697E-3,-4.3221448E-2,3.299953E-2,-1.0934696E-1,-2.8241618E-2,1.748491E-2,8.673976E-2,-2.3537213E-3,-1.2710817E-2,-3.222602E-3,1.1132931E-2,6.552254E-3,6.456925E-5,4.6005854E-3,1.147374E-2],"categories":[],"categories_nodes":[],"categories_segments":[],"categories_sizes":[],"default_left":[0,0,0,0,0,0,0,0,0,0,0,0,0,0,0],"id":13,"left_children":[1,3,5,7,9,11,13,-1,-1,-1,-1,-1,-1,-1,-1],"loss_changes":[4.3960607E-1,1.16768286E-1,1.6690275E-1,3.0538112E-2,5.9198327E-2,1.2776643E-1,4.6041757E-2,0E0,0E0,0E0,0E0,0E0,0E0,0E0,0E0],"parents":[2147483647,0,0,1,1,2,2,3,3,4,4,5,5,6,6],"right_children":[2,4,6,8,10,12,14,-1,-1,-1,-1,-1,-1,-1,-1],"split_conditions":[4.878049E-1,2.4390244E-1,7.5609756E-1,3.902439E-1,8.292683E-1,4.6341464E-1,5.121951E-1,-2.3537213E-3,-1.2710817E-2,-3.222602E-3,1.1132931E-2,6.552254E-3,6.456925E-5,4.6005854E-3,1.147374E-2],"split_indices":[11,11,11,7,8,9,4,0,0,0,0,0,0,0,0],"split_type":[0,0,0,0,0,0,0,0,0,0,0,0,0,0,0],"sum_hessian":[3.21E2,1.2E2,2.01E2,2.1E1,9.9E1,1.57E2,4.4E1,4E0,1.7E1,9.7E1,2E0,4E1,1.17E2,1.9E1,2.5E1],"tree_param":{"num_deleted":"0","num_feature":"12","num_nodes":"15","size_leaf_vector":"1"}},{"base_weights":[-3.8294583E-3,-6.136142E-2,1.6065039E-2,-4.518227E-2,-1.4018553E-1,-7.03542E-3,4.3765903E-2,-1.1091757E-2,-3.4030918E-3,3.029853E-4,-1.795197E-2,1.7182239E-3,-3.9482694E-3,3.5174296E-3,1.1945484E-2],"categories":[],"categories_nodes":[],"categories_segments":[],"categories_sizes":[],"default_left":[0,0,0,0,0,0,0,0,0,0,0,0,0,0,0],"id":14,"left_children":[1,3,5,7,9,11,13,-1,-1,-1,-1,-1,-1,-1,-1],"loss_changes":[3.7869373E-1,1.0206717E-1,1.57724E-1,4.9004048E-2,7.940957E-2,1.0676099E-1,6.863071E-2,0E0,0E0,0E0,0E0,0E0,0E0,0E0,0E0],"parents":[2147483647,0,0,1,1,2,2,3,3,4,4,5,5,6,6],"right_children":[2,4,6,8,10,12,14,-1,-1,-1,-1,-1,-1,-1,-1],"split_conditions":[4.1463414E-1,4.878049E-1,5.609756E-1,1.9512194E-1,3.902439E-1,5.365854E-1,8.0487806E-1,-1.1091757E-2,-3.4030918E-3,3.029853E-4,-1.795197E-2,1.7182239E-3,-3.9482694E-3,3.5174296E-3,1.1945484E-2],"split_indices":[11,10,2,11,4,5,4,0,0,0,0,0,0,0,0],"split_type":[0,0,0,0,0,0,0,0,0,0,0,0,0,0,0],"sum_hessian":[3.29E2,8.4E1,2.45E2,7.1E1,1.3E1,1.34E2,1.11E2,9E0,6.2E1,3E0,1E1,7.7E1,5.7E1,1.01E2,1E1],"tree_param":{"num_deleted":"0","num_feature":"12","num_nodes":"15","size_leaf_vector":"1"}},{"base_weights":[-2.8690265E-4,-5.728244E-2,1.6261347E-2,-3.9886843E-2,-1.2650084E-1,-4.7611285E-2,2.8407967E-2,-6.200161E-3,1.3930209E-3,-5.260359E-3,-1.7534835E-2,4.8433244E-4,-6.5257596E-3,2.611009E-4,4.538048E-3],"categories":[],"categories_nodes":[],"categories_segments":[],"categories_sizes":[],"default_left":[0,0,0,0,0,0,0,0,0,0,0,0,0,0,0],"id":15,"left_children":[1,3,5,7,9,11,13,-1,-1,-1,-1,-1,-1,-1,-1],"loss_changes":[3.0180472E-1,8.1649154E-2,1.9376004E-1,7.108262E-2,4.1311786E-2,3.734128E-2,9.138991E-2,0E0,0E0,0E0,0E0,0E0,0E0,0E0,0E0],"parents":[2147483647,0,0,1,1,2,2,3,3,4,4,5,5,6,6],"right_children":[2,4,6,8,10,12,14,-1,-1,-1,-1,-1,-1,-1,-1],"split_conditions":[3.902439E-1,4.878049E-1,3.6585367E-1,7.3170733E-1,4.1463414E-1,2.4390244E-1,4.6341464E-1,-6.200161E-3,1.3930209E-3,-5.260359E-3,-1.7534835E-2,4.8433244E-4,-6.5257596E-3,2.611009E-4,4.538048E-3],"split_indices":[11,10,1,4,2,2,4,0,0,0,0,0,0,0,0],"split_type":[0,0,0,0,0,0,0,0,0,0,0,0,0,0,0],"sum_hessian":[3.18E2,7.1E1,2.47E2,5.8E1,1.3E1,3.9E1,2.08E2,4.1E1,1.7E1,6E0,7E0,1E1,2.9E1,8.3E1,1.25E2],"tree_param":{"num_deleted":"0","num_feature":"12","num_nodes":"15","size_leaf_vector":"1"}},{"base_weights":[1.2012458E-3,-2.345227E-2,3.6903758E-2,-4.2100348E-2,8.800626E-3,1.3138965E-2,6.266009E-2,-8.275351E-3,-3.2613717E-3,1.9615353E-3,-9.596898E-3,2.2007E-3,-6.055621E-3,4.3332963E-3,1.2997083E-2],"categories":[],"categories_nodes":[],"categories_segments":[],"categories_sizes":[],"default_left":[0,0,0,0,0,0,0,0,0,0,0,0,0,0,0],"id":16,"left_children":[1,3,5,7,9,11,13,-1,-1,-1,-1,-1,-1,-1,-1],"loss_changes":[2.930894E-1,1.18857026E-1,8.242147E-2,4.5508787E-2,8.4595434E-2,4.8386928E-2,7.8927994E-2,0E0,0E0,0E0,0E0,0E0,0E0,0E0,0E0],"parents":[2147483647,0,0,1,1,2,2,3,3,4,4,5,5,6,6],"right_children":[2,4,6,8,10,12,14,-1,-1,-1,-1,-1,-1,-1,-1],"split_conditions":[6.097561E-1,5.365854E-1,4.878049E-1,2.4390244E-1,8.780488E-1,6.097561E-1,8.5365856E-1,-8.275351E-3,-3.2613717E-3,1.9615353E-3,-9.596898E-3,2.2007E-3,-6.055621E-3,4.3332963E-3,1.2997083E-2],"split_indices":[11,0,4,0,2,3,11,0,0,0,0,0,0,0,0],"split_type":[0,0,0,0,0,0,0,0,0,0,0,0,0,0,0],"sum_hessian":[3.31E2,1.96E2,1.35E2,1.24E2,7.2E1,7.1E1,6.4E1,2.2E1,1.02E2,6.6E1,6E0,6.4E1,7E0,5.1E1,1.3E1],"tree_param":{"num_deleted":"0","num_feature":"12","num_nodes":"15","size_leaf_vector":"1"}},{"base_weights":[9.142473E-4,-3.3822477E-2,2.4537632E-2,-3.9410528E-2,5.9115633E-2,1.3778853E-2,6.777118E-2,9.035581E-4,-4.96472E-3,8.255189E-3,-7.462084E-4,1.795642E-3,-9.574181E-3,-2.4751822E-5,8.533238E-3],"categories":[],"categories_nodes":[],"categories_segments":[],"categories_sizes":[],"default_left":[0,0,0,0,0,0,0,0,0,0,0,0,0,0,0],"id":17,"left_children":[1,3,5,7,9,11,13,-1,-1,-1,-1,-1,-1,-1,-1],"loss_changes":[2.7162763E-1,7.1921706E-2,9.0698816E-2,6.343128E-2,1.3098668E-2,7.446643E-2,4.6606228E-2,0E0,0E0,0E0,0E0,0E0,0E0,0E0,0E0],"parents":[2147483647,0,0,1,1,2,2,3,3,4,4,5,5,6,6],"right_children":[2,4,6,8,10,12,14,-1,-1,-1,-1,-1,-1,-1,-1],"split_conditions":[4.878049E-1,7.3170733E-1,7.5609756E-1,2.9268292E-1,7.0731705E-1,8.780488E-1,2.9268292E-1,9.035581E-4,-4.96472E-3,8.255189E-3,-7.462084E-4,1.795642E-3,-9.574181E-3,-2.4751822E-5,8.533238E-3],"split_indices":[0,11,11,10,7,2,7,0,0,0,0,0,0,0,0],"split_type":[0,0,0,0,0,0,0,0,0,0,0,0,0,0,0],"sum_hessian":[3.29E2,1.33E2,1.96E2,1.26E2,7E0,1.58E2,3.8E1,2.2E1,1.04E2,5E0,2E0,1.53E2,5E0,8E0,3E1],"tree_param":{"num_deleted":"0","num_feature":"12","num_nodes":"15","size_leaf_vector":"1"}},{"base_weights":[-7.62858E-4,-2.2882057E-2,3.25867E-2,-8.420405E-2,-1.4919346E-2,1.2084233E-2,6.571652E-2,4.5598526E-3,-9.873756E-3,-6.368267E-3,-4.7421313E-4,3.0707708E-3,-2.4295037E-3,1.3777313E-2,5.1121763E-3],"categories":[],"categories_nodes":[],"categories_segments":[],"categories_sizes":[],"default_left":[0,0,0,0,0,0,0,0,0,0,0,0,0,0,0],"id":18,"left_children":[1,3,5,7,9,11,13,-1,-1,-1,-1,-1,-1,-1,-1],"loss_changes":[2.4786362E-1,9.7378165E-2,9.0224445E-2,4.7891483E-2,8.902748E-2,5.7656746E-2,4.659088E-2,0E0,0E0,0E0,0E0,0E0,0E0,0E0,0E0],"parents":[2147483647,0,0,1,1,2,2,3,3,4,4,5,5,6,6],"right_children":[2,4,6,8,10,12,14,-1,-1,-1,-1,-1,-1,-1,-1],"split_conditions":[6.097561E-1,2.4390244E-1,5.365854E-1,2.4390244E-1,2.9268292E-1,6.585366E-1,5.8536583E-1,4.5598526E-3,-9.873756E-3,-6.368267E-3,-4.7421313E-4,3.0707708E-3,-2.4295037E-3,1.3777313E-2,5.1121763E-3],"split_indices":[11,11,4,1,1,0,4,0,0,0,0,0,0,0,0],"split_type":[0,0,0,0,0,0,0,0,0,0,0,0,0,0,0],"sum_hessian":[3.34E2,2.01E2,1.33E2,2.2E1,1.79E2,8.3E1,5E1,2E0,2E1,3E1,1.49E2,5.5E1,2.8E1,7E0,4.3E1],"tree_param":{"num_deleted":"0","num_feature":"12","num_nodes":"15","size_leaf_vector":"1"}},{"base_weights":[-5.086664E-4,-2.711837E-2,2.4044981E-2,-3.7373822E-2,3.0416539E-2,-3.610408E-2,3.0613989E-2,-3.3347884E-3,-1.5786685E-2,3.7113143E-4,1.6301483E-2,-4.833135E-3,7.976609E-3,1.2259078E-3,5.37171E-3],"categories":[],"categories_nodes":[],"categories_segments":[],"categories_sizes":[],"default_left":[0,0,0,0,0,0,0,0,0,0,0,0,0,0,0],"id":19,"left_children":[1,3,5,7,9,11,13,-1,-1,-1,-1,-1,-1,-1,-1],"loss_changes":[2.1103568E-1,9.2593975E-2,6.748538E-2,5.8768332E-2,8.438061E-2,2.7940387E-2,6.379792E-2,0E0,0E0,0E0,0E0,0E0,0E0,0E0,0E0],"parents":[2147483647,0,0,1,1,2,2,3,3,4,4,5,5,6,6],"right_children":[2,4,6,8,10,12,14,-1,-1,-1,-1,-1,-1,-1,-1],"split_conditions":[5.365854E-1,6.3414633E-1,3.1707317E-1,8.5365856E-1,6.097561E-1,6.097561E-1,6.3414633E-1,-3.3347884E-3,-1.5786685E-2,3.7113143E-4,1.6301483E-2,-4.833135E-3,7.976609E-3,1.2259078E-3,5.37171E-3],"split_indices":[0,11,10,2,2,11,2,0,0,0,0,0,0,0,0],"split_type":[0,0,0,0,0,0,0,0,0,0,0,0,0,0,0],"sum_hessian":[3.21E2,1.54E2,1.67E2,1.31E2,2.3E1,1.6E1,1.51E2,1.28E2,3E0,2E1,3E0,1.5E1,1E0,8.5E1,6.6E1],"tree_param":{"num_deleted":"0","num_feature":"12","num_nodes":"15","size_leaf_vector":"1"}},{"base_weights":[-2.0331726E-3,-4.447819E-2,1.0657702E-2,-3.147461E-2,-1.04074135E-1,-5.1831275E-2,1.629238E-2,-5.467215E-3,1.7523911E-3,-3.989085E-3,-1.7230617E-2,-9.4955E-3,-3.99563E-4,1.0637724E-3,6.9528087E-3],"categories":[],"categories_nodes":[],"categories_segments":[],"categories_sizes":[],"default_left":[0,0,0,0,0,0,0,0,0,0,0,0,0,0,0],"id":20,"left_children":[1,3,5,7,9,11,13,-1,-1,-1,-1,-1,-1,-1,-1],"loss_changes":[1.7553994E-1,5.484636E-2,8.9222886E-2,7.2566725E-2,5.0058186E-2,4.294046E-2,6.879823E-2,0E0,0E0,0E0,0E0,0E0,0E0,0E0,0E0],"parents":[2147483647,0,0,1,1,2,2,3,3,4,4,5,5,6,6],"right_children":[2,4,6,8,10,12,14,-1,-1,-1,-1,-1,-1,-1,-1],"split_conditions":[3.902439E-1,4.878049E-1,2.9268292E-1,7.3170733E-1,5.365854E-1,5.365854E-1,8.0487806E-1,-5.467215E-3,1.7523911E-3,-3.989085E-3,-1.7230617E-2,-9.4955E-3,-3.99563E-4,1.0637724E-3,6.9528087E-3],"split_indices":[11,10,1,4,3,10,1,0,0,0,0,0,0,0,0],"split_type":[0,0,0,0,0,0,0,0,0,0,0,0,0,0,0],"sum_hessian":[3.24E2,7.4E1,2.5E2,6.2E1,1.2E1,2E1,2.3E2,4.2E1,2E1,7E0,5E0,1E1,1E1,2.09E2,2.1E1],"tree_param":{"num_deleted":"0","num_feature":"12","num_nodes":"15","size_leaf_vector":"1"}},{"base_weights":[-9.91711E-4,-1.0314716E-2,5.3578887E-2,2.2891406E-2,-1.8910306E-2,4.431184E-2,1.4212171E-2,4.3661878E-4,5.694475E-3,-5.3417743E-3,-7.2932197E-4,5.211899E-3,-1.3819963E-3],"categories":[],"categories_nodes":[],"categories_segments":[],"categories_sizes":[],"default_left":[0,0,0,0,0,0,0,0,0,0,0,0,0],"id":21,"left_children":[1,3,5,7,9,11,-1,-1,-1,-1,-1,-1,-1],"loss_changes":[1.6386525E-1,7.8925095E-2,3.2267258E-2,3.5709582E-2,8.740224E-2,2.0689413E-2,0E0,0E0,0E0,0E0,0E0,0E0,0E0],"parents":[2147483647,0,0,1,1,2,2,3,3,4,4,5,5],"right_children":[2,4,6,8,10,12,-1,-1,-1,-1,-1,-1,-1],"split_conditions":[7.5609756E-1,3.902439E-1,8.292683E-1,3.1707317E-1,3.6585367E-1,7.0731705E-1,1.4212171E-2,4.3661878E-4,5.694475E-3,-5.3417743E-3,-7.2932197E-4,5.211899E-3,-1.3819963E-3],"split_indices":[11,7,4,7,11,7,0,0,0,0,0,0,0],"split_type":[0,0,0,0,0,0,0,0,0,0,0,0,0],"sum_hessian":[3.2E2,2.74E2,4.6E1,5.6E1,2.18E2,4.3E1,3E0,3.7E1,1.9E1,5.4E1,1.64E2,3.8E1,5E0],"tree_param":{"num_deleted":"0","num_feature":"12","num_nodes":"13","size_leaf_vector":"1"}},{"base_weights":[2.0110798E-3,-1.789322E-2,2.0584304E-2,-2.8101584E-2,2.9412633E-2,2.3901366E-2,-5.8174856E-2,-2.4184284E-3,-1.434918E-2,7.2253065E-4,1.3002927E-2,-2.2606354E-3,3.07068E-3,-9.602043E-3,-2.383255E-3],"categories":[],"categories_nodes":[],"categories_segments":[],"categories_sizes":[],"default_left":[0,0,0,0,0,0,0,0,0,0,0,0,0,0,0],"id":22,"left_children":[1,3,5,7,9,11,13,-1,-1,-1,-1,-1,-1,-1,-1],"loss_changes":[1.1866817E-1,7.567842E-2,4.475779E-2,5.438806E-2,6.1568096E-2,5.1335E-2,6.8095177E-3,0E0,0E0,0E0,0E0,0E0,0E0,0E0,0E0],"parents":[2147483647,0,0,1,1,2,2,3,3,4,4,5,5,6,6],"right_children":[2,4,6,8,10,12,14,-1,-1,-1,-1,-1,-1,-1,-1],"split_conditions":[5.365854E-1,6.3414633E-1,8.5365856E-1,8.5365856E-1,6.097561E-1,2.9268292E-1,4.878049E-1,-2.4184284E-3,-1.434918E-2,7.2253065E-4,1.3002927E-2,-2.2606354E-3,3.07068E-3,-9.602043E-3,-2.383255E-3],"split_indices":[0,11,6,2,2,9,4,0,0,0,0,0,0,0,0],"split_type":[0,0,0,0,0,0,0,0,0,0,0,0,0,0,0],"sum_hessian":[3.19E2,1.54E2,1.65E2,1.27E2,2.7E1,1.59E2,6E0,1.24E2,3E0,2.3E1,4E0,2E1,1.39E2,2E0,4E0],"tree_param":{"num_deleted":"0","num_feature":"12","num_nodes":"15","size_leaf_vector":"1"}},{"base_weights":[-1.8245879E-3,-3.8408585E-2,6.5403874E-3,-4.2473447E-2,5.43365E-2,-5.2524353E-3,2.7946893E-2,1.3997778E-4,-5.255689E-3,6.770818E-3,1.3796568E-3,-2.5961164E-4,-1.1683289E-2,5.958784E-3,1.0144649E-3],"categories":[],"categories_nodes":[],"categories_segments":[],"categories_sizes":[],"default_left":[0,0,0,0,0,0,0,0,0,0,0,0,0,0,0],"id":23,"left_children":[1,3,5,7,9,11,13,-1,-1,-1,-1,-1,-1,-1,-1],"loss_changes":[1.0032114E-1,2.5304586E-2,6.754911E-2,2.6174769E-2,6.9212075E-4,5.0972726E-2,5.2907094E-2,0E0,0E0,0E0,0E0,0E0,0E0,0E0,0E0],"parents":[2147483647,0,0,1,1,2,2,3,3,4,4,5,5,6,6],"right_children":[2,4,6,8,10,12,14,-1,-1,-1,-1,-1,-1,-1,-1],"split_conditions":[3.4146342E-1,8.0487806E-1,6.585366E-1,5.121951E-1,3.1707317E-1,9.756098E-1,5.609756E-1,1.3997778E-4,-5.255689E-3,6.770818E-3,1.3796568E-3,-2.5961164E-4,-1.1683289E-2,5.958784E-3,1.0144649E-3],"split_indices":[1,8,10,6,1,3,8,0,0,0,0,0,0,0,0],"split_type":[0,0,0,0,0,0,0,0,0,0,0,0,0,0,0],"sum_hessian":[3.26E2,6E1,2.66E2,5.8E1,2E0,1.72E2,9.4E1,1.1E1,4.7E1,1E0,1E0,1.69E2,3E0,3.3E1,6.1E1],"tree_param":{"num_deleted":"0","num_feature":"12","num_nodes":"15","size_leaf_vector":"1"}},{"base_weights":[1.7206424E-3,-1.621842E-2,1.809435E-2,-3.5775382E-2,-6.8330187E-3,1.4064416E-2,8.237581E-2,2.226523E-3,-4.5515145E-3,-1.0154201E-3,1.1279306E-2,1.770595E-3,-5.9158704E-3,1.4534582E-3,1.4731012E-2],"categories":[],"categories_nodes":[],"categories_segments":[],"categories_sizes":[],"default_left":[0,0,0,0,0,0,0,0,0,0,0,0,0,0,0],"id":24,"left_children":[1,3,5,7,9,11,13,-1,-1,-1,-1,-1,-1,-1,-1],"loss_changes":[9.722402E-2,2.8756436E-2,4.3657076E-2,2.9843792E-2,4.4053722E-2,4.477714E-2,4.191114E-2,0E0,0E0,0E0,0E0,0E0,0E0,0E0,0E0],"parents":[2147483647,0,0,1,1,2,2,3,3,4,4,5,5,6,6],"right_children":[2,4,6,8,10,12,14,-1,-1,-1,-1,-1,-1,-1,-1],"split_conditions":[5.365854E-1,3.4146342E-1,8.0487806E-1,5.121951E-1,9.512195E-1,8.0487806E-1,8.292683E-1,2.226523E-3,-4.5515145E-3,-1.0154201E-3,1.1279306E-2,1.770595E-3,-5.9158704E-3,1.4534582E-3,1.4731012E-2],"split_indices":[0,1,4,6,4,6,2,0,0,0,0,0,0,0,0],"split_type":[0,0,0,0,0,0,0,0,0,0,0,0,0,0,0],"sum_hessian":[3.29E2,1.57E2,1.72E2,5E1,1.07E2,1.63E2,9E0,7E0,4.3E1,1.05E2,2E0,1.56E2,7E0,5E0,4E0],"tree_param":{"num_deleted":"0","num_feature":"12","num_nodes":"15","size_leaf_vector":"1"}},{"base_weights":[2.08232E-3,-5.247134E-2,6.0364394E-3,4.834367E-2,-6.4970024E-2,2.2289727E-2,-1.0690511E-2,4.838258E-4,6.7677246E-3,-1.0238431E-2,-3.6948153E-3,-4.339274E-3,2.9167922E-3,-2.6601122E-4,-4.8887026E-3],"categories":[],"categories_nodes":[],"categories_segments":[],"categories_sizes":[],"default_left":[0,0,0,0,0,0,0,0,0,0,0,0,0,0,0],"id":25,"left_children":[1,3,5,7,9,11,13,-1,-1,-1,-1,-1,-1,-1,-1],"loss_changes":[7.020733E-2,3.08621E-2,8.261427E-2,2.1959054E-3,1.7185465E-2,7.08393E-2,4.5879945E-2,0E0,0E0,0E0,0E0,0E0,0E0,0E0,0E0],"parents":[2147483647,0,0,1,1,2,2,3,3,4,4,5,5,6,6],"right_children":[2,4,6,8,10,12,14,-1,-1,-1,-1,-1,-1,-1,-1],"split_conditions":[2.4390244E-1,2.4390244E-1,5.609756E-1,4.8780486E-2,4.1463414E-1,3.1707317E-1,6.8292683E-1,4.838258E-4,6.7677246E-3,-1.0238431E-2,-3.6948153E-3,-4.339274E-3,2.9167922E-3,-2.6601122E-4,-4.8887026E-3],"split_indices":[11,1,8,0,1,2,1,0,0,0,0,0,0,0,0],"split_type":[0,0,0,0,0,0,0,0,0,0,0,0,0,0,0],"sum_hessian":[3.23E2,2.1E1,3.02E2,2E0,1.9E1,1.53E2,1.49E2,1E0,1E0,7E0,1.2E1,1.4E1,1.39E2,1.24E2,2.5E1],"tree_param":{"num_deleted":"0","num_feature":"12","num_nodes":"15","size_leaf_vector":"1"}},{"base_weights":[-5.7018397E-4,2.364939E-2,-7.852751E-3,3.2969657E-2,-2.4771128E-2,-1.0613598E-2,6.909647E-2,1.8254766E-3,5.7346984E-3,-5.520589E-3,1.9937078E-3,-1.7523486E-3,1.8542673E-3,-4.226768E-3,1.0695304E-2],"categories":[],"categories_nodes":[],"categories_segments":[],"categories_sizes":[],"default_left":[0,0,0,0,0,0,0,0,0,0,0,0,0,0,0],"id":26,"left_children":[1,3,5,7,9,11,13,-1,-1,-1,-1,-1,-1,-1,-1],"loss_changes":[5.8744095E-2,3.556619E-2,5.51193E-2,2.2269279E-2,1.878953E-2,5.0288644E-2,4.2463433E-2,0E0,0E0,0E0,0E0,0E0,0E0,0E0,0E0],"parents":[2147483647,0,0,1,1,2,2,3,3,4,4,5,5,6,6],"right_children":[2,4,6,8,10,12,14,-1,-1,-1,-1,-1,-1,-1,-1],"split_conditions":[3.902439E-1,6.8292683E-1,8.780488E-1,3.1707317E-1,6.8292683E-1,7.5609756E-1,3.1707317E-1,1.8254766E-3,5.7346984E-3,-5.520589E-3,1.9937078E-3,-1.7523486E-3,1.8542673E-3,-4.226768E-3,1.0695304E-2],"split_indices":[7,3,1,7,1,8,10,0,0,0,0,0,0,0,0],"split_type":[0,0,0,0,0,0,0,0,0,0,0,0,0,0,0],"sum_hessian":[3.31E2,7.6E1,2.55E2,6.4E1,1.2E1,2.47E2,8E0,4.1E1,2.3E1,7E0,5E0,2E2,4.7E1,2E0,6E0],"tree_param":{"num_deleted":"0","num_feature":"12","num_nodes":"15","size_leaf_vector":"1"}},{"base_weights":[-2.589295E-3,-1.5104717E-2,1.1557725E-2,-3.381293E-2,1.3759013E-3,1.3181966E-2,-1.1928766E-2,8.856662E-3,-4.122427E-3,-3.940663E-3,1.5921434E-3,5.1113416E-4,5.0954483E-3],"categories":[],"categories_nodes":[],"categories_segments":[],"categories_sizes":[],"default_left":[0,0,0,0,0,0,0,0,0,0,0,0,0],"id":27,"left_children":[1,3,5,7,9,11,-1,-1,-1,-1,-1,-1,-1],"loss_changes":[5.8425974E-2,5.4003026E-2,3.451372E-2,7.8024834E-2,5.6388553E-2,4.6686113E-2,0E0,0E0,0E0,0E0,0E0,0E0,0E0],"parents":[2147483647,0,0,1,1,2,2,3,3,4,4,5,5],"right_children":[2,4,6,8,10,12,-1,-1,-1,-1,-1,-1,-1],"split_conditions":[5.609756E-1,5.609756E-1,9.756098E-1,2.195122E-1,2.9268292E-1,7.0731705E-1,-1.1928766E-2,8.856662E-3,-4.122427E-3,-3.940663E-3,1.5921434E-3,5.1113416E-4,5.0954483E-3],"split_indices":[10,2,3,10,9,2,0,0,0,0,0,0,0],"split_type":[0,0,0,0,0,0,0,0,0,0,0,0,0],"sum_hessian":[3.28E2,1.74E2,1.54E2,8.1E1,9.3E1,1.53E2,1E0,4E0,7.7E1,2.4E1,6.9E1,1.27E2,2.6E1],"tree_param":{"num_deleted":"0","num_feature":"12","num_nodes":"13","size_leaf_vector":"1"}},{"base_weights":[-6.9955364E-4,-2.3749335E-2,7.14017E-3,-1.2898946E-2,-7.352455E-2,-7.973931E-2,9.603351E-3,-2.6212446E-3,2.4917603E-3,1.5494153E-3,-9.70704E-3,-9.323603E-3,-3.066502E-3,-3.5557456E-3,1.4238915E-3],"categories":[],"categories_nodes":[],"categories_segments":[],"categories_sizes":[],"default_left":[0,0,0,0,0,0,0,0,0,0,0,0,0,0,0],"id":28,"left_children":[1,3,5,7,9,11,13,-1,-1,-1,-1,-1,-1,-1,-1],"loss_changes":[6.0524676E-2,4.4958454E-2,5.4265738E-2,3.6399566E-2,3.2944337E-2,1.7773062E-3,5.158668E-2,0E0,0E0,0E0,0E0,0E0,0E0,0E0,0E0],"parents":[2147483647,0,0,1,1,2,2,3,3,4,4,5,5,6,6],"right_children":[2,4,6,8,10,12,14,-1,-1,-1,-1,-1,-1,-1,-1],"split_conditions":[4.1463414E-1,4.878049E-1,1.7073171E-1,6.8292683E-1,3.1707317E-1,6.8292683E-1,2.9268292E-1,-2.6212446E-3,2.4917603E-3,1.5494153E-3,-9.70704E-3,-9.323603E-3,-3.066502E-3,-3.5557456E-3,1.4238915E-3],"split_indices":[11,10,5,6,5,10,1,0,0,0,0,0,0,0,0],"split_type":[0,0,0,0,0,0,0,0,0,0,0,0,0,0,0],"sum_hessian":[3.33E2,8.4E1,2.49E2,7E1,1.4E1,6E0,2.43E2,5.2E1,1.8E1,3E0,1.1E1,4E0,2E0,2.2E1,2.21E2],"tree_param":{"num_deleted":"0","num_feature":"12","num_nodes":"15","size_leaf_vector":"1"}},{"base_weights":[-2.7984825E-3,-2.540895E-2,5.3916797E-3,-1.9848228E-2,-1.1041085E-1,1.0777413E-3,4.510808E-2,-6.885592E-3,-1.2765935E-3,-1.3326871E-2,-9.489685E-4,-5.154127E-4,2.901362E-3,9.201128E-3,-1.4423704E-3],"categories":[],"categories_nodes":[],"categories_segments":[],"categories_sizes":[],"default_left":[0,0,0,0,0,0,0,0,0,0,0,0,0,0,0],"id":29,"left_children":[1,3,5,7,9,11,13,-1,-1,-1,-1,-1,-1,-1,-1],"loss_changes":[5.9210498E-2,3.7985656E-2,4.02149E-2,2.723502E-2,1.0269538E-2,3.723129E-2,6.554846E-2,0E0,0E0,0E0,0E0,0E0,0E0,0E0,0E0],"parents":[2147483647,0,0,1,1,2,2,3,3,4,4,5,5,6,6],"right_children":[2,4,6,8,10,12,14,-1,-1,-1,-1,-1,-1,-1,-1],"split_conditions":[4.1463414E-1,8.780488E-1,8.0487806E-1,1.9512194E-1,6.3414633E-1,7.5609756E-1,4.878049E-1,-6.885592E-3,-1.2765935E-3,-1.3326871E-2,-9.489685E-4,-5.154127E-4,2.901362E-3,9.201128E-3,-1.4423704E-3],"split_indices":[11,4,1,11,7,8,7,0,0,0,0,0,0,0,0],"split_type":[0,0,0,0,0,0,0,0,0,0,0,0,0,0,0],"sum_hessian":[3.18E2,8.4E1,2.34E2,8E1,4E0,2.12E2,2.2E1,9E0,7.1E1,3E0,1E0,1.74E2,3.8E1,1.2E1,1E1],"tree_param":{"num_deleted":"0","num_feature":"12","num_nodes":"15","size_leaf_vector":"1"}},{"base_weights":[-3.4600068E-4,1.9128144E-2,-8.472835E-3,9.952486E-3,5.349802E-2,-1.20696565E-2,4.788311E-2,1.5971735E-3,-4.3960004E-3,-1.8809012E-3,6.2577077E-3,-5.558169E-3,-8.5634086E-4,-2.255316E-3,1.0352946E-2],"categories":[],"categories_nodes":[],"categories_segments":[],"categories_sizes":[],"default_left":[0,0,0,0,0,0,0,0,0,0,0,0,0,0,0],"id":30,"left_children":[1,3,5,7,9,11,13,-1,-1,-1,-1,-1,-1,-1,-1],"loss_changes":[5.1597588E-2,2.9742721E-2,4.7199458E-2,2.5689594E-2,1.4306612E-2,3.2630417E-2,5.7208203E-2,0E0,0E0,0E0,0E0,0E0,0E0,0E0,0E0],"parents":[2147483647,0,0,1,1,2,2,3,3,4,4,5,5,6,6],"right_children":[2,4,6,8,10,12,14,-1,-1,-1,-1,-1,-1,-1,-1],"split_conditions":[4.390244E-1,7.0731705E-1,8.292683E-1,5.121951E-1,2.9268292E-1,3.4146342E-1,4.878049E-1,1.5971735E-3,-4.3960004E-3,-1.8809012E-3,6.2577077E-3,-5.558169E-3,-8.5634086E-4,-2.255316E-3,1.0352946E-2],"split_indices":[7,2,11,6,10,6,6,0,0,0,0,0,0,0,0],"split_type":[0,0,0,0,0,0,0,0,0,0,0,0,0,0,0],"sum_hessian":[3.24E2,9.5E1,2.29E2,7.6E1,1.9E1,2.16E2,1.3E1,6.9E1,7E0,2E0,1.7E1,1.5E1,2.01E2,6E0,7E0],"tree_param":{"num_deleted":"0","num_feature":"12","num_nodes":"15","size_leaf_vector":"1"}},{"base_weights":[-8.5168314E-4,-6.8014726E-2,1.296822E-3,-3.1364836E-2,-1.1514835E-2,1.2430639E-2,-1.073039E-2,-5.5578765E-3,6.903038E-5,7.421794E-4,6.965411E-3,8.701949E-3,-1.398222E-3],"categories":[],"categories_nodes":[],"categories_segments":[],"categories_sizes":[],"default_left":[0,0,0,0,0,0,0,0,0,0,0,0,0],"id":31,"left_children":[1,3,5,7,-1,9,11,-1,-1,-1,-1,-1,-1],"loss_changes":[4.6552844E-2,1.3662815E-2,4.2046834E-2,5.471633E-3,0E0,4.6202675E-2,4.9214497E-2,0E0,0E0,0E0,0E0,0E0,0E0],"parents":[2147483647,0,0,1,1,2,2,3,3,5,5,6,6],"right_children":[2,4,6,8,-1,10,12,-1,-1,-1,-1,-1,-1],"split_conditions":[1.9512194E-1,2.4390244E-1,5.609756E-1,4.8780486E-2,-1.1514835E-2,8.0487806E-1,2.195122E-1,-5.5578765E-3,6.903038E-5,7.421794E-4,6.965411E-3,8.701949E-3,-1.398222E-3],"split_indices":[11,10,6,11,0,1,10,0,0,0,0,0,0],"split_type":[0,0,0,0,0,0,0,0,0,0,0,0,0],"sum_hessian":[3.21E2,9E0,3.12E2,6E0,3E0,1.62E2,1.5E2,3E0,3E0,1.5E2,1.2E1,4E0,1.46E2],"tree_param":{"num_deleted":"0","num_feature":"12","num_nodes":"13","size_leaf_vector":"1"}},{"base_weights":[1.1138622E-4,1.2836757E-3,-9.721649E-2,2.0095264E-4,1.1995533E-2,-1.2658014E-2,-4.5627804E-4,1.8725323E-3,-5.6070875E-4],"categories":[],"categories_nodes":[],"categories_segments":[],"categories_sizes":[],"default_left":[0,0,0,0,0,0,0,0,0],"id":32,"left_children":[1,3,5,7,-1,-1,-1,-1,-1],"loss_changes":[3.8347103E-2,4.263409E-2,1.0305043E-2,3.5609785E-2,0E0,0E0,0E0,0E0,0E0],"parents":[2147483647,0,0,1,1,2,2,3,3],"right_children":[2,4,6,8,-1,-1,-1,-1,-1],"split_conditions":[9.756098E-1,9.512195E-1,4.878049E-1,3.902439E-1,1.1995533E-2,-1.2658014E-2,-4.5627804E-4,1.8725323E-3,-5.6070875E-4],"split_indices":[3,3,0,7,0,0,0,0,0],"split_type":[0,0,0,0,0,0,0,0,0],"sum_hessian":[3.34E2,3.31E2,3E0,3.29E2,2E0,2E0,1E0,7.8E1,2.51E2],"tree_param":{"num_deleted":"0","num_feature":"12","num_nodes":"9","size_leaf_vector":"1"}},{"base_weights":[1.716577E-4,-7.394747E-2,2.0900439E-3,-8.465221E-2,-2.7888834E-3,3.2581366E-3,-1.1814146E-2,-2.5255799E-3,-9.148033E-3,-5.724682E-4,1.7113747E-3],"categories":[],"categories_nodes":[],"categories_segments":[],"categories_sizes":[],"default_left":[0,0,0,0,0,0,0,0,0,0,0],"id":33,"left_children":[1,3,5,7,-1,9,-1,-1,-1,-1,-1],"loss_changes":[4.508631E-2,1.5835129E-3,4.378136E-2,1.2298673E-4,0E0,3.8307942E-2,0E0,0E0,0E0,0E0,0E0],"parents":[2147483647,0,0,1,1,2,2,3,3,5,5],"right_children":[2,4,6,8,-1,10,-1,-1,-1,-1,-1],"split_conditions":[1.7073171E-1,6.8292683E-1,9.756098E-1,4.6341464E-1,-2.7888834E-3,6.097561E-1,-1.1814146E-2,-2.5255799E-3,-9.148033E-3,-5.724682E-4,1.7113747E-3],"split_indices":[5,10,3,1,0,11,0,0,0,0,0],"split_type":[0,0,0,0,0,0,0,0,0,0,0],"sum_hessian":[3.15E2,7E0,3.08E2,5E0,2E0,3.06E2,2E0,1E0,4E0,1.86E2,1.2E2],"tree_param":{"num_deleted":"0","num_feature":"12","num_nodes":"11","size_leaf_vector":"1"}},{"base_weights":[-1.5663278E-4,2.2510255E-3,-1.0710308E-1,6.451059E-4,1.6691042E-2,-1.3675188E-2,-2.19874E-3,1.7288987E-3,-6.824322E-4],"categories":[],"categories_nodes":[],"categories_segments":[],"categories_sizes":[],"default_left":[0,0,0,0,0,0,0,0,0],"id":34,"left_children":[1,3,5,7,-1,-1,-1,-1,-1],"loss_changes":[8.186558E-2,8.212998E-2,1.465822E-2,3.853295E-2,0E0,0E0,0E0,0E0,0E0],"parents":[2147483647,0,0,1,1,2,2,3,3],"right_children":[2,4,6,8,-1,-1,-1,-1,-1],"split_conditions":[9.268293E-1,8.780488E-1,6.8292683E-1,4.390244E-1,1.6691042E-2,-1.3675188E-2,-2.19874E-3,1.7288987E-3,-6.824322E-4],"split_indices":[4,4,7,7,0,0,0,0,0],"split_type":[0,0,0,0,0,0,0,0,0],"sum_hessian":[3.16E2,3.1E2,6E0,3.08E2,2E0,4E0,2E0,9.5E1,2.13E2],"tree_param":{"num_deleted":"0","num_feature":"12","num_nodes":"9","size_leaf_vector":"1"}},{"base_weights":[-1.5333674E-3,-1.1931331E-2,9.7897835E-3,-6.2713446E-3,-7.113176E-2,1.1036258E-2,-9.35766E-3,-1.2369443E-3,3.672891E-3,-2.375554E-3,-9.244432E-3,1.6713444E-3,-1.1839959E-3],"categories":[],"categories_nodes":[],"categories_segments":[],"categories_sizes":[],"default_left":[0,0,0,0,0,0,0,0,0,0,0,0,0],"id":35,"left_children":[1,3,5,7,9,11,-1,-1,-1,-1,-1,-1,-1],"loss_changes":[3.908798E-2,5.752164E-2,2.1518862E-2,4.214726E-2,1.2949556E-2,2.071775E-2,0E0,0E0,0E0,0E0,0E0,0E0,0E0],"parents":[2147483647,0,0,1,1,2,2,3,3,4,4,5,5],"right_children":[2,4,6,8,10,12,-1,-1,-1,-1,-1,-1,-1],"split_conditions":[5.609756E-1,6.8292683E-1,9.756098E-1,6.3414633E-1,3.902439E-1,7.3170733E-1,-9.35766E-3,-1.2369443E-3,3.672891E-3,-2.375554E-3,-9.244432E-3,1.6713444E-3,-1.1839959E-3],"split_indices":[10,9,5,11,0,0,0,0,0,0,0,0,0],"split_type":[0,0,0,0,0,0,0,0,0,0,0,0,0],"sum_hessian":[3.3E2,1.72E2,1.58E2,1.58E2,1.4E1,1.57E2,1E0,1.39E2,1.9E1,5E0,9E0,1.26E2,3.1E1],"tree_param":{"num_deleted":"0","num_feature":"12","num_nodes":"13","size_leaf_vector":"1"}},{"base_weights":[-1.3136506E-3,-3.913601E-3,3.2881945E-2,-7.073704E-3,2.394E-2,-3.5673797E-3,8.997727E-2,-5.5301E-4,-6.472014E-3,4.8559234E-3,-3.2616311E-3,-9.294855E-3,1.7333458E-3,4.6213865E-4,1.0006908E-2],"categories":[],"categories_nodes":[],"categories_segments":[],"categories_sizes":[],"default_left":[0,0,0,0,0,0,0,0,0,0,0,0,0,0,0],"id":36,"left_children":[1,3,5,7,9,11,13,-1,-1,-1,-1,-1,-1,-1,-1],"loss_changes":[2.8934507E-2,2.6751462E-2,4.8185963E-2,2.3845546E-2,4.474739E-2,2.9633237E-2,7.2901025E-3,0E0,0E0,0E0,0E0,0E0,0E0,0E0,0E0],"parents":[2147483647,0,0,1,1,2,2,3,3,4,4,5,5,6,6],"right_children":[2,4,6,8,10,12,14,-1,-1,-1,-1,-1,-1,-1,-1],"split_conditions":[8.292683E-1,7.5609756E-1,4.878049E-1,9.268293E-1,7.0731705E-1,4.390244E-1,4.878049E-1,-5.5301E-4,-6.472014E-3,4.8559234E-3,-3.2616311E-3,-9.294855E-3,1.7333458E-3,4.6213865E-4,1.0006908E-2],"split_indices":[11,10,6,4,1,4,1,0,0,0,0,0,0,0,0],"split_type":[0,0,0,0,0,0,0,0,0,0,0,0,0,0,0],"sum_hessian":[3.23E2,3.01E2,2.2E1,2.71E2,3E1,1.4E1,8E0,2.65E2,6E0,2.1E1,9E0,2E0,1.2E1,1E0,7E0],"tree_param":{"num_deleted":"0","num_feature":"12","num_nodes":"15","size_leaf_vector":"1"}},{"base_weights":[6.2416826E-4,-8.462305E-3,9.225921E-3,-2.596826E-3,-6.986434E-2,-6.75637E-2,1.1483284E-2,-1.7046472E-3,6.383899E-4,2.546584E-3,-9.817856E-3,-3.0822754E-3,-8.178341E-3,1.3475607E-3,-7.257469E-3],"categories":[],"categories_nodes":[],"categories_segments":[],"categories_sizes":[],"default_left":[0,0,0,0,0,0,0,0,0,0,0,0,0,0,0],"id":37,"left_children":[1,3,5,7,9,11,13,-1,-1,-1,-1,-1,-1,-1,-1],"loss_changes":[2.5870739E-2,5.7803098E-2,3.024399E-2,1.9314531E-2,4.0288992E-2,9.143911E-5,2.8778108E-2,0E0,0E0,0E0,0E0,0E0,0E0,0E0,0E0],"parents":[2147483647,0,0,1,1,2,2,3,3,4,4,5,5,6,6],"right_children":[2,4,6,8,10,12,14,-1,-1,-1,-1,-1,-1,-1,-1],"split_conditions":[5.365854E-1,7.804878E-1,7.317073E-2,3.902439E-1,6.8292683E-1,4.6341464E-1,9.756098E-1,-1.7046472E-3,6.383899E-4,2.546584E-3,-9.817856E-3,-3.0822754E-3,-8.178341E-3,1.3475607E-3,-7.257469E-3],"split_indices":[0,3,5,2,5,1,2,0,0,0,0,0,0,0,0],"split_type":[0,0,0,0,0,0,0,0,0,0,0,0,0,0,0],"sum_hessian":[3.29E2,1.6E2,1.69E2,1.47E2,1.3E1,4E0,1.65E2,5.6E1,9.1E1,3E0,1E1,2E0,2E0,1.62E2,3E0],"tree_param":{"num_deleted":"0","num_feature":"12","num_nodes":"15","size_leaf_vector":"1"}},{"base_weights":[2.3082974E-3,-4.8080284E-2,4.0331916E-3,9.605117E-3,-7.091295E-2,-8.453217E-3,1.2401491E-2,1.8863321E-3,-9.084746E-4,4.868567E-4,-8.243439E-3,-2.081909E-3,3.131048E-3,2.1644784E-3,-8.8019436E-4],"categories":[],"categories_nodes":[],"categories_segments":[],"categories_sizes":[],"default_left":[0,0,0,0,0,0,0,0,0,0,0,0,0,0,0],"id":38,"left_children":[1,3,5,7,9,11,13,-1,-1,-1,-1,-1,-1,-1,-1],"loss_changes":[2.8875854E-2,1.5169356E-2,3.354164E-2,8.635067E-4,7.38623E-3,6.408281E-2,3.782051E-2,0E0,0E0,0E0,0E0,0E0,0E0,0E0,0E0],"parents":[2147483647,0,0,1,1,2,2,3,3,4,4,5,5,6,6],"right_children":[2,4,6,8,10,12,14,-1,-1,-1,-1,-1,-1,-1,-1],"split_conditions":[1.9512194E-1,5.8536583E-1,4.878049E-1,3.4146342E-1,4.1463414E-1,7.5609756E-1,5.8536583E-1,1.8863321E-3,-9.084746E-4,4.868567E-4,-8.243439E-3,-2.081909E-3,3.131048E-3,2.1644784E-3,-8.8019436E-4],"split_indices":[11,4,4,0,5,8,9,0,0,0,0,0,0,0,0],"split_type":[0,0,0,0,0,0,0,0,0,0,0,0,0,0,0],"sum_hessian":[3.29E2,1E1,3.19E2,3E0,7E0,1.28E2,1.91E2,2E0,1E0,1E0,6E0,9.8E1,3E1,1.33E2,5.8E1],"tree_param":{"num_deleted":"0","num_feature":"12","num_nodes":"15","size_leaf_vector":"1"}},{"base_weights":[-4.7984644E-4,5.043544E-4,-7.83578E-2,-2.251764E-3,3.278589E-2,-8.8533005E-3,-2.3916096E-3,1.1675799E-3,-8.4840617E-4,8.831595E-4,9.3121E-3],"categories":[],"categories_nodes":[],"categories_segments":[],"categories_sizes":[],"default_left":[0,0,0,0,0,0,0,0,0,0,0],"id":39,"left_children":[1,3,5,7,9,-1,-1,-1,-1,-1,-1],"loss_changes":[2.4566738E-2,2.8277868E-2,9.84557E-5,2.5531666E-2,3.530971E-2,0E0,0E0,0E0,0E0,0E0,0E0],"parents":[2147483647,0,0,1,1,2,2,3,3,4,4],"right_children":[2,4,6,8,10,-1,-1,-1,-1,-1,-1],"split_conditions":[9.756098E-1,8.0487806E-1,1E0,4.390244E-1,6.3414633E-1,-8.8533005E-3,-2.3916096E-3,1.1675799E-3,-8.4840617E-4,8.831595E-4,9.3121E-3],"split_indices":[4,4,4,7,11,0,0,0,0,0,0],"split_type":[0,0,0,0,0,0,0,0,0,0,0],"sum_hessian":[3.19E2,3.16E2,3E0,2.92E2,2.4E1,2E0,1E0,9E1,2.02E2,1.8E1,6E0],"tree_param":{"num_deleted":"0","num_feature":"12","num_nodes":"11","size_leaf_vector":"1"}},{"base_weights":[2.589243E-4,-2.132462E-2,4.2110058E-3,-4.308373E-2,2.7606223E-2,-3.20995E-2,7.6799705E-3,5.7169287E-3,-4.7713798E-3,5.2410346E-3,-3.7444911E-3,1.5631606E-3,-4.887829E-3,9.056034E-3,6.3066854E-4],"categories":[],"categories_nodes":[],"categories_segments":[],"categories_sizes":[],"default_left":[0,0,0,0,0,0,0,0,0,0,0,0,0,0,0],"id":40,"left_children":[1,3,5,7,9,11,13,-1,-1,-1,-1,-1,-1,-1,-1],"loss_changes":[2.7556377E-2,5.4423958E-2,3.4633562E-2,1.8974006E-2,2.7779084E-2,1.9984933E-2,2.7883455E-2,0E0,0E0,0E0,0E0,0E0,0E0,0E0,0E0],"parents":[2147483647,0,0,1,1,2,2,3,3,4,4,5,5,6,6],"right_children":[2,4,6,8,10,12,14,-1,-1,-1,-1,-1,-1,-1,-1],"split_conditions":[3.1707317E-1,3.902439E-1,2.4390244E-1,2.682927E-1,5.121951E-1,4.878049E-1,2.195122E-1,5.7169287E-3,-4.7713798E-3,5.2410346E-3,-3.7444911E-3,1.5631606E-3,-4.887829E-3,9.056034E-3,6.3066854E-4],"split_indices":[6,5,11,10,5,3,5,0,0,0,0,0,0,0,0],"split_type":[0,0,0,0,0,0,0,0,0,0,0,0,0,0,0],"sum_hessian":[3.21E2,4.9E1,2.72E2,3.4E1,1.5E1,2.3E1,2.49E2,1E0,3.3E1,1.1E1,4E0,6E0,1.7E1,3E0,2.46E2],"tree_param":{"num_deleted":"0","num_feature":"12","num_nodes":"15","size_leaf_vector":"1"}},{"base_weights":[-1.5996793E-6,-1.4560566E-3,9.1629505E-2,-3.1681845E-3,3.8561698E-2,1.7545104E-3,1.05764335E-2,-1.5217309E-4,-5.1257103E-3,6.362547E-3,-3.3738152E-3],"categories":[],"categories_nodes":[],"categories_segments":[],"categories_sizes":[],"default_left":[0,0,0,0,0,0,0,0,0,0,0],"id":41,"left_children":[1,3,5,7,9,-1,-1,-1,-1,-1,-1],"loss_changes":[4.2647664E-2,2.1704558E-2,3.3802018E-3,2.3912383E-2,2.570399E-2,0E0,0E0,0E0,0E0,0E0,0E0],"parents":[2147483647,0,0,1,1,2,2,3,3,4,4],"right_children":[2,4,6,8,10,-1,-1,-1,-1,-1,-1],"split_conditions":[9.268293E-1,8.5365856E-1,3.4146342E-1,8.0487806E-1,9.512195E-1,1.7545104E-3,1.05764335E-2,-1.5217309E-4,-5.1257103E-3,6.362547E-3,-3.3738152E-3],"split_indices":[11,0,7,0,0,0,0,0,0,0,0],"split_type":[0,0,0,0,0,0,0,0,0,0,0],"sum_hessian":[3.18E2,3.14E2,4E0,3.02E2,1.2E1,1E0,3E0,2.93E2,9E0,9E0,3E0],"tree_param":{"num_deleted":"0","num_feature":"12","num_nodes":"11","size_leaf_vector":"1"}},{"base_weights":[2.83532E-3,-6.394248E-2,4.287224E-3,-3.278184E-3,-7.911749E-3,-4.3312285E-2,5.8039697E-3,-9.513335E-3,2.7535444E-3,1.4055584E-3,-4.24447E-4],"categories":[],"categories_nodes":[],"categories_segments":[],"categories_sizes":[],"default_left":[0,0,0,0,0,0,0,0,0,0,0],"id":42,"left_children":[1,3,5,-1,-1,7,9,-1,-1,-1,-1],"loss_changes":[3.1881448E-2,7.164236E-4,2.3354214E-2,0E0,0E0,3.9333582E-2,2.5846489E-2,0E0,0E0,0E0,0E0],"parents":[2147483647,0,0,1,1,2,2,5,5,6,6],"right_children":[2,4,6,-1,-1,8,10,-1,-1,-1,-1],"split_conditions":[1.7073171E-1,1.9512194E-1,1.9512194E-1,-3.278184E-3,-7.911749E-3,4.878049E-1,5.8536583E-1,-9.513335E-3,2.7535444E-3,1.4055584E-3,-4.24447E-4],"split_indices":[5,4,0,0,0,9,9,0,0,0,0],"split_type":[0,0,0,0,0,0,0,0,0,0,0],"sum_hessian":[3.25E2,6E0,3.19E2,3E0,3E0,9E0,3.1E2,5E0,4E0,1.7E2,1.4E2],"tree_param":{"num_deleted":"0","num_feature":"12","num_nodes":"11","size_leaf_vector":"1"}},{"base_weights":[-2.9131313E-4,-1.7830181E-3,5.0459024E-2,6.6313525E-3,-1.5245162E-2,-2.4230748E-2,7.52605E-2,4.4765236E-4,8.503374E-3,-9.239982E-3,-4.8126825E-4,-2.8525294E-5,-3.606087E-3,8.802414E-4,8.486978E-3],"categories":[],"categories_nodes":[],"categories_segments":[],"categories_sizes":[],"default_left":[0,0,0,0,0,0,0,0,0,0,0,0,0,0,0],"id":43,"left_children":[1,3,5,7,9,11,13,-1,-1,-1,-1,-1,-1,-1,-1],"loss_changes":[2.386119E-2,3.476339E-2,1.8495362E-2,3.15497E-2,9.453522E-2,8.395477E-4,3.723245E-3,0E0,0E0,0E0,0E0,0E0,0E0,0E0,0E0],"parents":[2147483647,0,0,1,1,2,2,3,3,4,4,5,5,6,6],"right_children":[2,4,6,8,10,12,14,-1,-1,-1,-1,-1,-1,-1,-1],"split_conditions":[9.02439E-1,6.097561E-1,3.1707317E-1,8.780488E-1,4.878049E-1,8.780488E-1,5.8536583E-1,4.4765236E-4,8.503374E-3,-9.239982E-3,-4.8126825E-4,-2.8525294E-5,-3.606087E-3,8.802414E-4,8.486978E-3],"split_indices":[1,3,10,10,4,0,3,0,0,0,0,0,0,0,0],"split_type":[0,0,0,0,0,0,0,0,0,0,0,0,0,0,0],"sum_hessian":[3.13E2,3.05E2,8E0,1.88E2,1.17E2,2E0,6E0,1.84E2,4E0,1.3E1,1.04E2,1E0,1E0,1E0,5E0],"tree_param":{"num_deleted":"0","num_feature":"12","num_nodes":"15","size_leaf_vector":"1"}},{"base_weights":[1.0937932E-3,-2.414681E-3,2.2977958E-2,-1.2292957E-2,5.5794055E-3,3.0954795E-2,-6.652332E-2,-6.7264907E-4,-4.7588157E-3,9.683743E-4,-3.3646957E-3,-3.965735E-3,4.1568796E-3,-8.85171E-3,-2.7099251E-5],"categories":[],"categories_nodes":[],"categories_segments":[],"categories_sizes":[],"default_left":[0,0,0,0,0,0,0,0,0,0,0,0,0,0,0],"id":44,"left_children":[1,3,5,7,9,11,13,-1,-1,-1,-1,-1,-1,-1,-1],"loss_changes":[2.5008991E-2,2.2258539E-2,3.4186386E-2,2.4435064E-2,2.5441553E-2,3.3126563E-2,5.8045685E-3,0E0,0E0,0E0,0E0,0E0,0E0,0E0,0E0],"parents":[2147483647,0,0,1,1,2,2,3,3,4,4,5,5,6,6],"right_children":[2,4,6,8,10,12,14,-1,-1,-1,-1,-1,-1,-1,-1],"split_conditions":[7.5609756E-1,5.365854E-1,9.756098E-1,5.121951E-1,8.5365856E-1,4.878049E-1,6.8292683E-1,-6.7264907E-4,-4.7588157E-3,9.683743E-4,-3.3646957E-3,-3.965735E-3,4.1568796E-3,-8.85171E-3,-2.7099251E-5],"split_indices":[3,10,3,10,6,6,1,0,0,0,0,0,0,0,0],"split_type":[0,0,0,0,0,0,0,0,0,0,0,0,0,0,0],"sum_hessian":[3.24E2,2.8E2,4.4E1,1.25E2,1.55E2,4.1E1,3E0,1.09E2,1.6E1,1.41E2,1.4E1,5E0,3.6E1,2E0,1E0],"tree_param":{"num_deleted":"0","num_feature":"12","num_nodes":"15","size_leaf_vector":"1"}},{"base_weights":[-4.1922962E-4,5.251529E-4,-7.70455E-3,-4.2924247E-4,1.0310668E-2,7.1427156E-4,-1.0377893E-3],"categories":[],"categories_nodes":[],"categories_segments":[],"categories_sizes":[],"default_left":[0,0,0,0,0,0,0],"id":45,"left_children":[1,3,-1,5,-1,-1,-1],"loss_changes":[2.377602E-2,3.1862836E-2,0E0,2.4405962E-2,0E0,0E0,0E0],"parents":[2147483647,0,0,1,1,3,3],"right_children":[2,4,-1,6,-1,-1,-1],"split_conditions":[9.756098E-1,9.512195E-1,-7.70455E-3,5.8536583E-1,1.0310668E-2,7.1427156E-4,-1.0377893E-3],"split_indices":[4,4,0,9,0,0,0],"split_type":[0,0,0,0,0,0,0],"sum_hessian":[3.27E2,3.24E2,3E0,3.22E2,2E0,1.83E2,1.39E2],"tree_param":{"num_deleted":"0","num_feature":"12","num_nodes":"7","size_leaf_vector":"1"}},{"base_weights":[-7.2144525E-4,-3.4376897E-2,2.076255E-3,1.1554635E-2,-5.667142E-2,-4.887755E-3,1.6772604E-2,-2.8062717E-3,3.604043E-3,-6.463883E-3,2.0561021E-4,-3.0569392E-4,-5.623699E-3,2.1303683E-3,-4.4527515E-3],"categories":[],"categories_nodes":[],"categories_segments":[],"categories_sizes":[],"default_left":[0,0,0,0,0,0,0,0,0,0,0,0,0,0,0],"id":46,"left_children":[1,3,5,7,9,11,13,-1,-1,-1,-1,-1,-1,-1,-1],"loss_changes":[3.067268E-2,2.6255358E-2,3.0887978E-2,9.741953E-3,8.087307E-3,1.9100342E-2,2.7890902E-2,0E0,0E0,0E0,0E0,0E0,0E0,0E0,0E0],"parents":[2147483647,0,0,1,1,2,2,3,3,4,4,5,5,6,6],"right_children":[2,4,6,8,10,12,14,-1,-1,-1,-1,-1,-1,-1,-1],"split_conditions":[2.682927E-1,3.902439E-1,6.3414633E-1,1.4634146E-1,7.804878E-1,9.268293E-1,8.5365856E-1,-2.8062717E-3,3.604043E-3,-6.463883E-3,2.0561021E-4,-3.0569392E-4,-5.623699E-3,2.1303683E-3,-4.4527515E-3],"split_indices":[5,3,11,5,11,4,6,0,0,0,0,0,0,0,0],"split_type":[0,0,0,0,0,0,0,0,0,0,0,0,0,0,0],"sum_hessian":[3.24E2,2.4E1,3E2,8E0,1.6E1,2.04E2,9.6E1,3E0,5E0,1.4E1,2E0,1.98E2,6E0,9E1,6E0],"tree_param":{"num_deleted":"0","num_feature":"12","num_nodes":"15","size_leaf_vector":"1"}},{"base_weights":[5.329911E-4,-1.4708553E-2,5.6725764E-3,-3.238032E-2,4.615014E-3,-1.1009029E-3,1.9232798E-2,-2.1478015E-3,-7.875594E-3,3.5350479E-3,-2.3536093E-3,-3.6592703E-4,6.8158503E-3,1.3446105E-2,1.3230977E-3],"categories":[],"categories_nodes":[],"categories_segments":[],"categories_sizes":[],"default_left":[0,0,0,0,0,0,0,0,0,0,0,0,0,0,0],"id":47,"left_children":[1,3,5,7,9,11,13,-1,-1,-1,-1,-1,-1,-1,-1],"loss_changes":[2.6090728E-2,2.8833887E-2,2.2891797E-2,2.0554941E-2,3.630674E-2,2.9840304E-2,5.5622034E-2,0E0,0E0,0E0,0E0,0E0,0E0,0E0,0E0],"parents":[2147483647,0,0,1,1,2,2,3,3,4,4,5,5,6,6],"right_children":[2,4,6,8,10,12,14,-1,-1,-1,-1,-1,-1,-1,-1],"split_conditions":[4.1463414E-1,4.6341464E-1,6.3414633E-1,5.609756E-1,5.365854E-1,8.780488E-1,4.6341464E-1,-2.1478015E-3,-7.875594E-3,3.5350479E-3,-2.3536093E-3,-3.6592703E-4,6.8158503E-3,1.3446105E-2,1.3230977E-3],"split_indices":[11,9,2,8,9,10,1,0,0,0,0,0,0,0,0],"split_type":[0,0,0,0,0,0,0,0,0,0,0,0,0,0,0],"sum_hessian":[3.31E2,8.3E1,2.48E2,4.3E1,4E1,1.66E2,8.2E1,3.6E1,7E0,1.9E1,2.1E1,1.61E2,5E0,3E0,7.9E1],"tree_param":{"num_deleted":"0","num_feature":"12","num_nodes":"15","size_leaf_vector":"1"}},{"base_weights":[-1.86429E-3,-3.347528E-2,5.735598E-4,-4.5780838E-3,-8.708526E-2,-3.0202E-2,3.2476173E-3,-2.876691E-3,5.439072E-3,-1.1576078E-2,-4.67278E-3,3.383899E-3,-5.3428942E-3,1.038039E-3,-6.53436E-4],"categories":[],"categories_nodes":[],"categories_segments":[],"categories_sizes":[],"default_left":[0,0,0,0,0,0,0,0,0,0,0,0,0,0,0],"id":48,"left_children":[1,3,5,7,9,11,13,-1,-1,-1,-1,-1,-1,-1,-1],"loss_changes":[2.4756374E-2,3.5232417E-2,2.4704471E-2,2.4386832E-2,3.8489178E-3,3.7507415E-2,1.9325074E-2,0E0,0E0,0E0,0E0,0E0,0E0,0E0,0E0],"parents":[2147483647,0,0,1,1,2,2,3,3,4,4,5,5,6,6],"right_children":[2,4,6,8,10,12,14,-1,-1,-1,-1,-1,-1,-1,-1],"split_conditions":[2.4390244E-1,6.585366E-1,2.682927E-1,4.390244E-1,2.195122E-1,4.1463414E-1,6.097561E-1,-2.876691E-3,5.439072E-3,-1.1576078E-2,-4.67278E-3,3.383899E-3,-5.3428942E-3,1.038039E-3,-6.53436E-4],"split_indices":[0,4,5,2,0,1,3,0,0,0,0,0,0,0,0],"split_type":[0,0,0,0,0,0,0,0,0,0,0,0,0,0,0],"sum_hessian":[3.2E2,2.2E1,2.98E2,1.5E1,7E0,2.3E1,2.75E2,1.1E1,4E0,3E0,4E0,6E0,1.7E1,1.59E2,1.16E2],"tree_param":{"num_deleted":"0","num_feature":"12","num_nodes":"15","size_leaf_vector":"1"}},{"base_weights":[1.9069242E-3,-1.3794056E-2,5.3435448E-3,-1.878471E-2,4.386194E-2,7.4446327E-3,-3.3458028E-2,-6.842745E-4,-5.017377E-3,1.1906867E-3,6.119637E-3,5.839656E-4,1.0709824E-2,-6.0211355E-3,1.8969178E-4],"categories":[],"categories_nodes":[],"categories_segments":[],"categories_sizes":[],"default_left":[0,0,0,0,0,0,0,0,0,0,0,0,0,0,0],"id":49,"left_children":[1,3,5,7,9,11,13,-1,-1,-1,-1,-1,-1,-1,-1],"loss_changes":[1.7718077E-2,1.7800659E-2,2.2179447E-2,2.027326E-2,2.040957E-3,4.0319655E-2,1.3356289E-2,0E0,0E0,0E0,0E0,0E0,0E0,0E0,0E0],"parents":[2147483647,0,0,1,1,2,2,3,3,4,4,5,5,6,6],"right_children":[2,4,6,8,10,12,14,-1,-1,-1,-1,-1,-1,-1,-1],"split_conditions":[3.4146342E-1,7.804878E-1,8.5365856E-1,4.390244E-1,6.585366E-1,8.292683E-1,8.0487806E-1,-6.842745E-4,-5.017377E-3,1.1906867E-3,6.119637E-3,5.839656E-4,1.0709824E-2,-6.0211355E-3,1.8969178E-4],"split_indices":[1,8,6,0,9,6,5,0,0,0,0,0,0,0,0],"split_type":[0,0,0,0,0,0,0,0,0,0,0,0,0,0,0],"sum_hessian":[3.26E2,5.8E1,2.68E2,5.4E1,4E0,2.55E2,1.3E1,4E1,1.4E1,2E0,2E0,2.52E2,3E0,7E0,6E0],"tree_param":{"num_deleted":"0","num_feature":"12","num_nodes":"15","size_leaf_vector":"1"}}]},"name":"gbtree"},"learner_model_param":{"base_score":"[5.311653E-1]","boost_from_average":"1","num_class":"0","num_feature":"12","num_target":"1"},"objective":{"name":"reg:squarederror","reg_loss_param":{"scale_pos_weight":"1"}}},"version":[3,2,0]}